layers 4
layer 0 Dense
33 64
[-1.1116132   0.85028327  0.14849927 -0.11072111  0.08496343 -0.2153683
 -0.20319597 -0.19587816  0.11516421  0.79539216  0.01983351 -0.06458206
  0.17476556  0.14705545 -0.5272298   0.1501201   0.47424695 -0.01424326
 -0.9890687  -0.03716475  0.37633207 -0.8832313  -0.9145424  -0.07214025
 -0.21227343  0.38181406  0.7150693   0.22519352  0.45323732  0.03376354
  0.3389995   0.2626725  -0.60040665  0.19346924  0.21108523 -0.1986772
 -0.5003911  -0.23461123  0.6088479   0.11225624  0.9852562  -0.81831485
  0.03070374 -0.0359306  -0.24688521  0.05184533  0.74071014 -0.04465052
  0.04706247  0.07678057  0.4795439  -0.12045531  0.20789388 -0.02575447
  0.5281819  -0.3390675   0.11461003  0.14809151  0.06434952  0.16452323
  0.54550904  0.36714458 -0.05774155 -0.5829129 ]
[-0.90336156 -0.15908225  0.12038641 -0.20005703  0.18657856 -0.6439271
  0.08205664 -0.05774245 -0.136859    0.01424852  0.26179677 -0.04140623
 -0.11161192 -0.22745013  0.04215628  0.24724977  0.20758747 -0.19837555
 -0.3455368  -0.0837739   0.16331252  0.05238504 -0.38366342 -0.13799304
 -0.04450358 -0.09935673  0.08301408  0.31319425 -0.18634129  0.10146202
  0.01346578  0.10228574 -0.13008992 -0.06483562 -0.10140754  0.1237381
 -0.1037416   0.2099856   0.42967057  0.09354888  0.03614964 -0.3406326
 -0.16619706 -0.092281    0.14023249  0.24160759  0.31213042 -0.02145037
  0.22712414 -0.10281877 -0.15886064 -0.14734513  0.5014637  -0.02962548
  0.10638867  0.20416306 -0.23783857 -0.2371847  -0.05306222  0.17724098
  0.13524468 -0.04864354  0.13522206 -0.47468022]
[ 0.33399948 -0.71379334 -0.0920549   0.23918585 -0.22731283  0.5389313
 -0.05557747 -0.09581774  0.10992582 -0.13288432  0.4394203  -0.1698016
  0.11940283 -0.02131685  0.27166197  0.12951191 -0.1771693  -0.13609675
  0.05375996  0.16732268 -0.44215214  0.352543    0.20193374 -0.00206536
  0.19040169 -0.2874462  -0.5946076   0.30207416 -0.51013607  0.07505567
  0.08849349  0.16235419 -0.08252089  0.19606276 -0.00122975 -0.0498095
  0.27273107  0.22588651 -0.27444565 -0.04176836 -0.34789136  0.24572954
 -0.10041411  0.13305263  0.20352264 -0.21609278 -0.31499565  0.03432165
 -0.12843663  0.12090205 -0.25824478  0.1523328  -0.11265866 -0.22859833
 -0.13426168  0.04868707 -0.20152467  0.24348758 -0.0638947   0.08788072
  0.08789892 -0.4229314   0.20258911  0.00590428]
[ 1.0076669e+00  1.3660598e-01 -1.5297189e-01 -2.2015567e-01
  1.7630653e-01 -1.5974770e-01 -3.1593385e-01 -1.7960882e-01
 -1.7378400e-01 -3.9304289e-01 -1.6772071e+00 -1.9364423e-01
 -1.9980989e-02  2.3533565e-01  5.1535720e-01 -1.9094929e-02
 -5.7496977e-01 -1.3184826e-01  5.6669182e-01  9.8395064e-02
 -8.3793777e-01  3.3271617e-01  7.8650087e-01  3.6721081e-03
  2.0729803e-01 -3.1665555e-01 -1.9414689e-01  3.5026467e-01
 -5.1785100e-01 -1.8717182e-01  9.3657583e-02 -9.4816871e-02
  2.9380772e-01 -8.1823766e-04 -3.5162497e-01  2.2303356e-01
  1.4115000e-01  2.5031641e-02 -5.2290422e-01  3.6394253e-02
 -6.8433273e-01  5.2270716e-01 -1.7411044e-01 -1.0066506e-01
  1.2186276e-01  2.4127021e-02 -8.9349103e-01  1.0765256e-01
  8.9572087e-02 -9.7178474e-02 -9.0126269e-02 -3.5140947e-02
 -6.7465499e-02 -2.3213305e-01 -3.9307937e-01 -2.2091761e-01
  7.7630535e-02 -4.2514428e-02  2.2001548e-01  1.6103251e-01
 -1.9891357e-01 -4.8792058e-01 -2.3027724e-01  5.0801051e-01]
[-2.14243725e-01  3.96715030e-02 -5.27819842e-02  8.52140933e-02
 -2.17238396e-01  6.52598083e-01 -4.53744568e-02  6.04020208e-02
  1.47117779e-01  3.44963670e-01 -3.49434674e-01 -5.89983165e-03
  6.77499056e-01 -1.64341047e-01 -9.72379506e-01 -1.26392841e-01
  8.61947000e-01 -1.42411947e-01 -2.55720336e-02  2.01576039e-01
  1.84156463e-01 -8.69196117e-01 -4.87791598e-01  1.72129974e-01
 -2.30060279e-01  5.24689317e-01  6.25619888e-02  9.98866037e-02
  4.21991020e-01 -9.71723199e-02 -4.06937897e-01  9.62359250e-01
  7.24682678e-03  2.11770967e-01  5.90276003e-01 -8.62867683e-02
 -2.22680569e-01 -9.36239958e-04 -7.03079462e-01 -2.46070772e-01
  8.21366131e-01  3.73187326e-02 -6.99957311e-02  1.36261657e-01
  1.67809919e-01  2.20733091e-01 -6.55480176e-02  4.75156158e-02
 -8.66970420e-02 -4.01828736e-02  2.30881542e-01 -1.40304953e-01
 -1.61806092e-01 -1.64779335e-01 -3.69560093e-01 -2.94453800e-01
 -1.03936866e-01 -1.65272683e-01  1.28846124e-01 -2.33828455e-01
  5.67086816e-01 -1.15071678e+00  2.25146726e-01 -1.02984583e+00]
[ 1.71657398e-01  4.65335883e-02 -1.42218173e-02 -4.34792340e-02
 -5.02660871e-04  5.42925224e-02 -1.31131411e-02  2.19867781e-01
 -1.06736973e-01  1.32108107e-01 -1.39470562e-01  1.92417011e-01
  9.91903543e-02 -6.24777973e-02 -3.76667440e-01 -1.13991618e-01
  2.34307945e-01 -2.16230944e-01 -1.33837909e-01 -1.68231472e-01
 -1.10697486e-01 -1.10509187e-01 -5.95806353e-02 -5.33097833e-02
 -6.08367175e-02 -1.16602771e-01  3.70804727e-01  5.69185354e-02
  2.52420366e-01  1.51161626e-01  1.46716371e-01  1.76635087e-01
 -2.74775863e-01  1.12858638e-01  4.71410334e-01 -7.95768797e-02
 -3.85925025e-01 -2.42280304e-01  1.11153826e-01  1.10398784e-01
  1.23543933e-01  1.38530895e-01  1.40310779e-01  1.62518486e-01
 -9.39088017e-02 -1.03325695e-01 -6.45980835e-01  3.13045233e-02
  1.66054681e-01 -1.79810017e-01  2.75427215e-02 -1.58972532e-01
 -6.01541400e-01 -1.98508203e-01 -1.74328953e-01 -3.84396672e-01
 -2.33210772e-01  4.56944257e-02  1.09287962e-01 -3.25832516e-02
  4.51741070e-01 -3.08843821e-01  1.55581534e-03 -3.98005486e-01]
[ 0.16944027 -0.23150769  0.08053429  0.14536338  0.0799738  -0.5771678
  0.08651906 -0.01655497  0.01887412 -0.26340845  0.19089817  0.15697585
 -0.4848134   0.20947984  0.2305244   0.1750903  -0.4121967  -0.11364278
 -0.15157636 -0.03247705 -0.11320772  0.2561259   0.3400838   0.1010953
 -0.18202867 -0.20890462  0.01160795  0.34779727 -0.00647389 -0.01028037
  0.3603845  -0.19772018  0.02032612 -0.04115482 -0.39800045  0.14933132
 -0.11757456  0.18387814 -0.05518483 -0.14294834 -0.40794462  0.1348353
  0.17778386 -0.07370485 -0.10115936 -0.14856681 -0.12718672  0.01848175
  0.20731588 -0.03469931  0.22158927  0.21217607 -0.11283948  0.20045413
  0.07774139 -0.26177692 -0.07445443 -0.13477111  0.03863458  0.12108959
 -0.16565093  0.23257539 -0.1945217   0.19752865]
[-0.14009628 -0.29480913  0.19720344 -0.0869797   0.07890837 -0.7402101
  0.15459326  0.22612767 -0.0323441  -0.36048633  0.80615824  0.09390686
 -0.24767818  0.1802495   0.51303667 -0.15073156 -1.1651613  -0.03777071
  0.56964004  0.1128038  -0.31410456  0.54966056  0.54579127  0.22454141
  0.07711796 -0.5243432  -0.5207551   0.13041861 -0.5533187  -0.04877394
  0.5543679  -0.579487   -0.01619282  0.0973974  -1.2680521  -0.10799365
  0.10659622  0.15204747  0.39513665 -0.19413769 -0.72672975 -0.26079056
  0.2231329  -0.16434446 -0.2125383  -0.01657489  0.18698914 -0.17693941
  0.04565187 -0.04824147 -0.1753173   0.03865291  0.18877016  0.23674093
  0.09957268  0.39311716  0.1318234   0.03662254  0.11315869  0.01564856
 -0.1979587   0.7579902  -0.18853866  0.7486152 ]
[-0.647622    0.7172064   0.01332684 -0.2313124   0.07944413  0.32699847
  0.02885714 -0.17716682  0.16477127 -0.5831713  -0.5687977  -0.14290133
 -0.07618015 -0.03143571  0.4279587  -0.12501255  0.69760275 -0.08587851
 -0.70919615  0.06514533  0.33591217 -0.53391474  0.15672763 -0.11091769
  0.05186732  0.31296724 -0.16059022  0.3875798   0.3550884  -0.0131693
 -0.2333175   0.983475   -0.24456656  0.05873428 -0.03163252  0.08971013
  0.00424967 -0.15981919  0.21781509  0.20706226  0.26994532 -0.07609599
 -0.15871887 -0.05749209 -0.12293023  0.05732991 -0.21867524 -0.15664242
 -0.07095343 -0.08182113  0.20732416 -0.12732613  0.10583454 -0.20302506
 -1.1897113  -0.25235197 -0.01034655  0.0678422  -0.05042382  0.21291484
  0.3548369  -0.43561316 -0.1964164  -0.5497217 ]
[-0.13923231 -0.48876178 -0.03711535 -0.07136816  0.16649954  0.02039295
  0.09372573 -0.18853131  0.15631078  0.07888244 -0.21093872 -0.16973683
 -0.43456563  0.04922669  0.03438064  0.16769432  0.19562557  0.08705123
 -0.39527005 -0.06113794  0.01846477 -0.06592942 -0.01137708 -0.13663736
  0.14714311  0.17229192  0.34910586 -0.02375571  0.13018388 -0.05620642
  0.1524482   0.33892944  0.14179963 -0.23170494 -0.08424124 -0.16516921
 -0.11695056 -0.18898107  0.27961022  0.03230985 -0.1115251   0.13700373
  0.0335959  -0.01360376 -0.22145207 -0.17691125 -0.17071243 -0.20601687
 -0.05599231 -0.21504739  0.03488117  0.10048996  0.14992343 -0.20173576
 -0.37591618  0.00752554  0.05556856  0.23585825  0.17487226 -0.17066382
  0.14971009 -0.11499818  0.15580155 -0.26329392]
[ 0.2335483  -0.88295394 -0.21189186 -0.190416    0.19078933 -0.32978404
 -0.05496822  0.18546616  0.12585752 -0.03579446  0.19944903 -0.16749696
  0.13330112  0.1922554  -0.10879494 -0.11461085 -0.31752807  0.00552337
 -0.25312024  0.03013472 -0.38135195 -0.0535856  -0.07049849 -0.04355568
  0.20394723 -0.30779448  0.2758877   0.10321213  0.06438918  0.14910452
  0.3228163  -0.3229177   0.10337687 -0.01040448 -0.20735137 -0.01434426
 -0.15946595  0.02414368 -0.01000392  0.15168072  0.0176527   0.14060053
  0.14390425  0.02089868  0.03538522 -0.07671784 -0.0460703   0.05676536
  0.16980876  0.08371721 -0.20082772  0.10129823 -0.13056324  0.2140186
  0.2207502  -0.30646503  0.08216013 -0.1966391   0.2484561   0.10735656
 -0.15944333  0.17156649  0.09392832  0.19752587]
[ 0.4984787  -0.36430815  0.119105    0.09762399 -0.1297405  -0.6122862
 -0.2245983   0.07759826 -0.05882277  0.38056138  0.59706247  0.14973922
  0.23385336 -0.03656055  0.1964179  -0.2001777  -0.8198561   0.17287998
  0.4352013  -0.13260886 -0.44872794  0.37072963 -0.2063114   0.03474905
 -0.07348736 -0.63884556 -0.47203207  0.4746655  -0.10806449 -0.1632655
  0.6426857  -0.75033605  0.0038228  -0.24731334 -0.44457677  0.09916438
 -0.1304441  -0.01574479 -0.03655677 -0.2219612  -0.43589842 -0.11523736
  0.21403526 -0.09092756  0.01604186  0.1799436  -0.35171092  0.21098499
  0.06092565  0.10594852 -0.11086782  0.04730038 -0.03914425 -0.2359514
  0.90862787 -0.06043854  0.19632159  0.02370389  0.07543595 -0.1589872
 -0.06751901 -0.11997654  0.05308317  0.5231955 ]
[-0.5211655  -0.1744625  -0.23288463 -0.17562243  0.05823822 -0.18292278
  0.6455303  -0.04033338 -0.17920157  0.4456668  -0.269359    0.16245
  0.63153785 -0.2542852   0.8022479  -0.03345752  0.11089952 -0.03839935
 -0.44921756 -0.09515409  0.45843178 -0.7310501   0.9342883   0.08375563
 -0.10255828 -0.38930523  0.8013354   0.06388482 -0.09796736  0.20839839
 -0.18200146  0.8135261   0.0396824  -0.02822126  0.2078931  -0.08431236
  0.09726632 -0.07151467  0.7748311  -0.15212218  0.13496141 -0.3944955
 -0.08491985 -0.05038568 -0.22073257 -0.09483734  0.07824238 -0.23337615
 -0.07123758  0.20097192 -0.05915213 -0.04898866  0.63900715  0.027959
 -1.0596818   0.39261514  0.03238513  0.01810177  0.15113561  0.11039095
 -0.01332084  0.5236471  -0.20782465  0.05676836]
[-0.07383331 -0.19591478  0.00682218  0.05939154  0.21921848  0.00822301
 -0.21604468 -0.1336396   0.24337597 -0.63934124 -0.10144817 -0.18516071
 -0.1854688  -0.10304873  0.3281161   0.05337025  0.0524966  -0.14682344
 -0.3808932  -0.21621084  0.3412093  -0.7297798   0.19309253  0.05555303
  0.09180181 -0.12835127  0.06436721  0.13631076  0.11602364  0.07147641
  0.0744445   0.39214796 -0.3257876   0.14945187 -0.516507   -0.10562991
 -0.21786745 -0.12665257 -0.0350856  -0.0089829   0.02020122 -0.34561038
 -0.0803995  -0.19436383  0.22656359  0.17599554  0.17835736 -0.06338683
  0.09597205  0.23286702  0.09539773  0.21303137  0.1021318  -0.10248576
 -0.39974946 -0.12094027 -0.05822489 -0.19097249 -0.1338784   0.07473512
  0.20757888 -0.19993585 -0.19955039 -0.2834125 ]
[ 0.32874018 -0.3064526   0.08020293 -0.24720874  0.06894334  0.0485225
 -0.21400411 -0.15331565 -0.21046104 -0.09807824  0.00798284 -0.20344275
 -0.38603172 -0.13729006 -0.20150435 -0.00186636  0.04672916 -0.20643574
  0.1374205  -0.005758   -0.20875825 -0.28167897 -0.5305068  -0.02321924
 -0.16592067 -0.09948139  0.16434132  0.19117314  0.11002469 -0.2308787
  0.35283902 -0.34789556 -0.22111875 -0.13939434 -0.4003468  -0.08776948
 -0.2520977   0.1817144  -0.4060515  -0.0053013  -0.04881208  0.14473076
 -0.04723734  0.17350625 -0.04686876 -0.05932109 -0.06416329 -0.01409486
 -0.21393742  0.07027604  0.17948078  0.15443422 -0.35524422 -0.17384264
  0.21878546 -0.10154922  0.16088136  0.04679345  0.05996837 -0.20896392
  0.05277801 -0.3039295  -0.07830918 -0.3382798 ]
[ 0.36910167  0.09833623  0.21894507  0.19932513  0.11064242 -0.17839369
 -0.34148732 -0.19613497 -0.09481776  0.16262184  0.22224262 -0.22028998
  0.19122332 -0.10305411 -0.82417846 -0.08339173  0.14182143  0.01867413
  0.03779879 -0.03771134 -0.4481488   0.6392874  -1.1291085  -0.15925811
 -0.08129197 -0.25613368 -0.63793963  0.2722417   0.23125345 -0.20608275
  0.51044065 -0.73652273 -0.18874663 -0.15621099  0.2766428  -0.1735068
 -0.38002068 -0.06544958 -0.4004758   0.00961833 -0.30133194  0.23509564
  0.24362172 -0.15136021 -0.09580678 -0.17409454 -0.6836909  -0.22565886
 -0.04670142  0.13009201 -0.0581795   0.04092135 -0.5270974  -0.07002662
  0.9100827  -0.18257464  0.15486597  0.01984783 -0.15870002  0.1875863
  0.26514536 -0.40250096 -0.18296033 -0.15029077]
[-0.07131214 -0.7995202   0.22817762  0.09405415  0.04866479 -0.45239058
  0.30761367  0.1680869   0.2060528  -0.99339175  0.16563955  0.05362274
  0.24951601 -0.20982692  0.62200224 -0.14631864 -0.98179954  0.05137433
 -0.01693063  0.05603157  0.25396606 -1.3470064   1.091865   -0.15718883
  0.11704208 -0.17609772  0.4699561  -0.10469535 -0.4090158  -0.106785
 -0.18223733  0.8093559  -0.00828044 -0.15685037 -0.1899658  -0.1930969
  0.1407889  -0.099655    0.40153417 -0.19780576 -0.22896574 -0.1713726
  0.17685775  0.00665651 -0.05362388  0.03656538  0.26924896  0.12374277
  0.18305258  0.09898786 -0.1508404   0.10965164  0.52802265 -0.21726473
 -0.29128024  0.04432743  0.19229604  0.00985445 -0.07654646  0.16627343
 -0.11477521  0.12693346 -0.12515278  0.16702555]
[-0.18026775  0.3167896   0.18611728  0.16609015 -0.11798471 -0.24458766
  0.15729687 -0.11992353 -0.05354762  0.11815392 -0.05309648 -0.1878179
 -0.20071486  0.2198648   0.18549277  0.01128207 -0.33648735 -0.1777707
 -0.15067898 -0.17413896 -0.16463578 -0.6333674   0.41108984  0.02356021
  0.1204289  -0.27155814  0.13983154  0.16990429 -0.14411527  0.10182326
  0.34828007  0.3355631   0.00067629  0.11413617 -0.10538661 -0.05508132
 -0.04133531  0.07580714  0.12803118  0.02689944  0.00068848 -0.03444781
  0.0047975  -0.16275626 -0.21778807 -0.08771563 -0.0378161  -0.23262954
 -0.06084052 -0.14210254 -0.13611142 -0.10176507 -0.18095964  0.18951355
 -0.09278919 -0.17043406 -0.02679412  0.09990571  0.12654744  0.12335567
 -0.0865482   0.04008328  0.0523933   0.1884674 ]
[-0.23147115 -0.0530302   0.0079589  -0.23850845  0.13603212 -0.13356146
 -0.19588779 -0.14279518  0.04739501  0.187497   -0.13811508 -0.23964344
  0.14741844  0.07690036 -0.16857745  0.14742945  0.27941287 -0.12595215
  0.15976077  0.2269185  -0.33161765  0.2934876  -0.34528536 -0.21781535
 -0.22566901  0.04281885 -0.25751165  0.24986953  0.3439391  -0.09625731
  0.16289273 -0.3059077  -0.260704   -0.04640439 -0.5762621  -0.1203759
 -0.24514504  0.20887817 -0.36395812  0.04546307  0.25692546 -0.06696948
 -0.24735413  0.06995244 -0.18855822  0.17524834 -0.06694206 -0.00762691
 -0.12921834 -0.05609661  0.09484144 -0.21447459 -0.23831779  0.20437448
  0.12070209 -0.43764696  0.09998901  0.04627822  0.21276937 -0.05643104
  0.26179963 -0.0909377   0.1014884  -0.0614838 ]
[ 0.36373273  0.3488059   0.07645644  0.17014082  0.02956624 -0.01378517
 -0.1475048   0.01546799 -0.0790119   0.40963858 -0.4956122   0.18968244
  0.44946513 -0.12367676 -0.5118357  -0.09041411  0.7707234   0.08378874
  0.19557269 -0.17103532 -0.48965493  0.55718523 -1.1149791  -0.09991117
  0.13984464  0.02531666 -0.5517658   0.24053936  0.59500295 -0.16518286
  0.28453124 -0.7640999   0.25939062 -0.12992823  0.52167547  0.13031135
 -0.28905305 -0.03301618 -0.4474973   0.18020879 -0.04728425  0.41083312
 -0.0210022   0.09404169  0.10267656 -0.03475979 -0.54657155  0.01760225
 -0.14415035 -0.02386403  0.19195141  0.01188849 -0.73933274 -0.00983196
  0.3266734  -0.21825077  0.09034489  0.21512903  0.02928807 -0.02603619
  0.30180195 -1.3750025  -0.0665455  -0.31897202]
[ 5.05277999e-02 -2.44918019e-01 -1.51165426e-01  2.38097757e-02
 -1.00241214e-01 -6.71170652e-02  1.92940056e-01  1.86170891e-01
  1.92590579e-01 -5.01223087e-01  6.38021231e-01  8.03763121e-02
 -1.04755506e-01  3.89703400e-02 -1.07339931e+00 -2.03710586e-01
 -1.05669808e+00 -1.69858932e-01  1.23572141e-01 -2.11689889e-01
 -1.76413715e-01 -1.07734787e+00  4.95990753e-01 -1.88898891e-02
  2.31785163e-01 -5.84474087e-01  6.44771755e-01 -6.35455251e-02
 -1.00659251e+00 -1.99646637e-01  1.00960948e-01  8.55173469e-01
  1.93784714e-01  3.07634473e-04 -2.70200133e-01  1.50926992e-01
  8.33957642e-02  2.42558107e-01  4.48785603e-01  9.74498838e-02
 -8.03005159e-01  1.16183706e-01  1.40160695e-01  9.98032540e-02
  2.14373156e-01  1.44407168e-01  2.98678845e-01  5.56831807e-02
  9.18998271e-02 -1.06375381e-01 -3.94248337e-01 -2.23077267e-01
  3.41554642e-01 -2.02818349e-01  4.09721702e-01  2.72296160e-01
 -1.56466365e-01 -1.02112889e-02  2.41673872e-01 -2.46334672e-02
 -4.12948757e-01  3.36881995e-01  1.14816025e-01  1.55413151e-01]
[ 0.07375272 -0.08982158 -0.19047725  0.06329338 -0.21742618 -0.24018207
 -0.09808472  0.08267899 -0.16121313  0.065148    0.27860397  0.1002361
  0.09295689  0.06910153  0.21270561  0.18298014 -0.288125    0.21152775
  0.03975598 -0.14980897 -0.16454802 -0.25901788  0.26956886 -0.1084532
 -0.15809044 -0.35730428  0.5173902  -0.03117491 -0.4190723  -0.03597198
 -0.04525549  0.4619793   0.11970849  0.14097323 -0.2939692   0.22579171
 -0.34449032  0.08920552 -0.14322281 -0.01683828 -0.07748686 -0.05875044
  0.00229947 -0.0125366  -0.18189365 -0.06683616  0.14420998 -0.03747676
  0.22243176  0.10006024  0.04357824  0.02915613  0.01635574  0.06524958
  0.16091084  0.03828658  0.21738254 -0.22380728 -0.16308689 -0.07956104
  0.39175713  0.05276266 -0.06448092  0.13753888]
[-0.16937996  0.11121655  0.0350032   0.00163557 -0.03694393  0.10992146
  0.04727294 -0.03839959  0.21943747  0.02976225 -0.20762406  0.15903072
  0.26309234  0.20859785  0.30152184 -0.09251432  0.4241553  -0.14797047
  0.15875709  0.15800084 -0.1179716   0.04972543 -0.01725591  0.03345545
  0.1721233   0.12549008 -0.23165524  0.4936014   0.35473713  0.10866056
  0.17151067 -0.17536482  0.08437008  0.05943815 -0.24218436  0.02846949
 -0.10718031 -0.03676958  0.16425541  0.07710533  0.22127093  0.05245881
 -0.19304729  0.05420361 -0.02706932  0.08145858 -0.27523062 -0.17494184
 -0.15813409 -0.05004135  0.18733808 -0.12121613  0.04362019  0.18992572
 -0.21543118 -0.12571238  0.14461683 -0.08594723 -0.14083076  0.16938923
  0.42576593 -0.41106805  0.03269447 -0.16534904]
[ 0.10672396 -0.02001348  0.22712906  0.22363265 -0.06282024 -0.0772388
 -0.5665177   0.2362978  -0.05744904  0.64446366 -0.45928913  0.01922236
  0.20550981  0.23399979  0.3989947   0.20018192  1.2197897  -0.22639588
 -0.25348574 -0.21365462 -0.0814538   0.6396852  -0.29128492  0.06840889
 -0.0507866   0.5994405  -0.25147423  0.4203253   0.72798514  0.15316318
  0.7109585  -0.80671316 -0.04666378  0.13859756  0.2830515   0.15291642
 -0.06253008  0.1582012  -0.1379736  -0.24420816  0.618147   -0.08343533
  0.00643019 -0.14314148  0.08662091 -0.17681998 -0.38975656 -0.23172241
  0.17582227  0.13928132  0.25454882  0.07927345 -0.36176747  0.03133719
 -0.5511297  -0.4864993  -0.02897167  0.12118958 -0.1871561   0.23979287
  0.53308654 -0.7173943  -0.2434166  -0.6894265 ]
[ 1.77975684e-01  6.21938646e-01 -9.10980850e-02  8.16097409e-02
  8.24835449e-02 -3.01934779e-01 -2.08653182e-01  2.48523816e-01
  5.58329076e-02 -5.43415427e-01  4.94994909e-01 -1.44764423e-01
  4.38781261e-01  1.51768982e-01 -6.10736981e-02 -2.33225822e-01
 -6.07894063e-01  1.64968506e-01 -3.05437278e-02  1.11521974e-01
 -1.38430610e-01 -9.34972644e-01 -4.62324739e-01  1.37702078e-02
 -1.18477166e-01 -2.45745882e-01  3.75394017e-01 -4.10354406e-01
 -9.52764213e-01  6.51399940e-02  5.67877948e-01  9.21405137e-01
  9.33588147e-02 -1.32983014e-01 -7.36253560e-01 -3.39942127e-02
 -5.27062595e-01 -2.34713405e-01  7.33762106e-04 -9.99447256e-02
 -1.08274639e+00  4.03163910e-01 -1.87251568e-01  3.85595709e-02
  2.30598852e-01 -2.39129931e-01  1.98348984e-01  3.99676412e-02
 -5.79703152e-02 -1.69769317e-01 -2.23447848e-02  8.06742162e-02
  1.05712347e-01  1.52353153e-01  8.37650120e-01 -3.52737367e-01
 -1.05971038e-01 -1.65125817e-01  1.17096797e-01 -1.58507526e-02
  3.02781239e-02 -1.10691965e+00  1.67532191e-01  4.95684445e-01]
[ 0.17987196  0.37226108 -0.0175222   0.06304778  0.17556657 -0.25948194
 -0.0221579   0.17551677 -0.1437779  -0.1361923   0.19035956 -0.0528934
  0.46522963 -0.23843415 -0.18147449  0.1366265  -0.23432909  0.1600507
 -0.02627188  0.21795665 -0.30127177 -0.5140863  -0.12923549 -0.11275031
 -0.0533351  -0.44364953  0.39261118  0.7489846  -0.21455729 -0.09405521
 -0.0708097   0.08332044  0.01332695  0.06161879  0.13177423 -0.13387501
  0.07165532  0.10107611 -0.02724986 -0.10509422 -0.1648236   0.12913254
 -0.20121568  0.20044963  0.02091594  0.04674499 -0.08895107 -0.05924188
 -0.220272   -0.188647   -0.04102649  0.12838547  0.08607713 -0.0162876
  0.18908058  0.30102506  0.2468472  -0.01897088 -0.22635134  0.11796762
  0.07813794 -0.42194417  0.09488346  0.20580976]
[-0.19252625 -0.66512537  0.1395308   0.10241686 -0.05934089 -0.0171549
  0.20336697 -0.06164914  0.20169888  0.07806543 -0.326138   -0.04206081
  0.03004109 -0.24930641 -0.11635944  0.10053693  0.22353218 -0.13527697
  0.01120546 -0.17571291 -0.22990869  0.06585303  0.14888717 -0.07024981
  0.14228244 -0.10166257 -0.1375043   0.47459814  0.1810622   0.20198162
 -0.05264078 -0.37843826 -0.05842003 -0.05843301 -0.145786   -0.11275108
  0.02262799 -0.08483501  0.06954838 -0.15842903  0.16674231 -0.24140486
 -0.03165171 -0.21820909  0.22209041 -0.03130043 -0.33391556  0.04505225
 -0.1919147  -0.02549326  0.11438521 -0.13762209  0.1237091  -0.19786382
 -0.40468496  0.06629091  0.09547146 -0.15542412  0.05579479 -0.07559985
  0.09948951  0.1482568   0.01116525 -0.43195754]
[-0.40622395 -0.7653791   0.10311092  0.05880396  0.22206129  0.33261862
 -0.40437025  0.1129149   0.00276564  0.5752371  -0.5513838  -0.20343806
 -0.43873402 -0.13003682  0.2897942  -0.01089355  0.65037084 -0.19733602
 -0.16996236  0.23649313  0.29271275  0.6142445   0.5053654   0.21089615
 -0.08799741  0.6895973  -0.4761026   0.27258107  0.6484945  -0.07618493
  0.00753698 -0.56004655 -0.19037698 -0.07555614  0.60286564 -0.10071249
  0.02547028 -0.13594927 -0.20499964 -0.17044383  0.6259357  -0.65073586
  0.12649806  0.1470037  -0.02553347 -0.2233976  -0.31030366 -0.04775363
  0.2080463   0.16220148  0.4130979   0.18134256  0.2575793  -0.07199936
 -1.0362892  -0.09441555 -0.07750748  0.1438076   0.04537793  0.20185365
  0.36394417  0.2924957   0.15989669 -0.89417684]
[-0.2447375  -0.01632359 -0.06350447 -0.20525    -0.01191488  0.45386982
  0.08181475  0.22847836  0.05890603 -1.4026945  -1.0204176  -0.21445632
  0.09736354  0.15892316 -0.22198935  0.19230412  0.3182651  -0.00573878
 -0.55854785 -0.18538597  0.8317972  -0.19962327 -0.865908   -0.0035007
 -0.09915188 -0.30713668  0.24792078  0.4372334  -0.38333902  0.03771715
  0.384188    0.40256548 -0.11865106 -0.22330284 -0.03673669 -0.15133187
 -0.37159777 -0.24547692  0.15458974 -0.22045672 -0.86453927 -0.8682435
  0.07298981  0.12298711 -0.11607304 -0.05211703  0.42881474  0.1582927
 -0.05548745 -0.04979984 -0.01433842 -0.13867062  0.11815115 -0.20582154
  0.71872526 -0.03205833 -0.24833673 -0.15285349  0.1007718  -0.23667683
 -0.29932985  0.20570964 -0.04089847  0.5779866 ]
[ 0.07738999  0.15155959  0.09885522 -0.01169661  0.10227586 -0.23581931
  0.35059905  0.22053434 -0.16480175 -0.01191573  0.6002803  -0.15852022
  0.40321732 -0.14740023  0.21752864 -0.24487245  0.27326143  0.22835498
  0.04498417 -0.18310258  0.28593212  0.12572657 -0.2641798   0.02906643
 -0.00146148 -0.28147733  0.33324546  0.02832033 -0.4106089  -0.10742196
  0.506729    0.06221304 -0.09778779  0.10183297 -0.38103983 -0.1372669
  0.10818964  0.11091028  0.2269575  -0.17373888 -0.34336656 -0.58050305
  0.02008073  0.24210887 -0.03028521  0.04871614 -0.4208987  -0.07355684
 -0.17251992  0.17127411 -0.38230392  0.18600504  0.38154796 -0.01382808
  0.44196826  0.11519769 -0.07306652 -0.11060786  0.11329697  0.1424046
  0.06302094 -0.05893636  0.23742805  0.24806404]
[ 0.32932127 -0.15400305 -0.1843417  -0.21084592  0.07200809 -0.16864944
 -0.26512408 -0.04362777 -0.03383565  0.345659    0.38747954  0.08785848
  0.37886688  0.21243769  0.31458136 -0.18241107  0.13114138 -0.09654602
 -0.18302186  0.13385712 -0.63590187 -0.28831765  0.29595828  0.15615015
 -0.02877533 -0.02949593 -0.10892022  0.2675468   0.11397354 -0.22396785
  0.41903466 -0.11191025 -0.12313468 -0.12314595 -0.8194207   0.01264377
 -0.21466514  0.0717157   0.1667727   0.09689404  0.04577204 -0.08283494
 -0.05163714 -0.22921921  0.09216298 -0.21020736 -0.5097538   0.1525235
  0.09149165  0.04816432  0.00779629 -0.09622078 -0.00268756  0.06984322
 -0.07295769 -0.24018358 -0.23277564 -0.03510787 -0.07040684 -0.17295682
  0.4702701  -0.35855746  0.13695304 -0.3830707 ]
[ 1.48163378e-01  5.43450564e-02 -7.45506585e-02  7.39567429e-02
 -1.70651138e-01 -1.96403876e-01 -4.12945718e-01 -1.19012967e-01
 -2.40173787e-01  5.90543866e-01  2.06963107e-01 -8.08784366e-02
 -4.86957639e-01  6.34867698e-02  1.52648270e-01  4.90227491e-02
 -2.57390052e-01  1.91631243e-01  1.42538831e-01  1.41698271e-02
 -5.45322657e-01  2.49166880e-02  6.76621020e-01 -2.01493502e-04
  1.61488310e-01  2.30617300e-01 -4.67028409e-01  4.10661548e-01
  2.96637684e-01 -3.12821567e-02 -4.13755476e-01 -1.07020088e-01
  2.66987104e-02 -1.89843178e-01  2.94536620e-01  1.69966534e-01
 -2.34875735e-03 -5.28931022e-02 -2.08060309e-01  2.13340119e-01
  7.14617819e-02  5.43944001e-01  1.72212884e-01 -2.95390785e-02
  2.33779505e-01 -1.50492176e-01 -1.34820804e-01  1.23551354e-01
  6.61922991e-03  3.23819369e-02  3.09334286e-02  2.38423005e-01
 -4.75123495e-01  1.72658965e-01 -5.27317584e-01 -4.76766020e-01
 -1.88737422e-01 -5.33187985e-02 -2.03236043e-01 -1.42331481e-01
  1.90353226e-02 -8.88746455e-02  2.18180612e-01 -9.69624460e-01]
[ 0.01300603  0.01497334 -0.07565692 -0.1469967  -0.0671237   0.04705797
  0.08616693 -0.13166901 -0.11577402  0.01441851 -0.01730273 -0.18256837
 -0.00405929 -0.07254542 -0.01125631 -0.13741283 -0.00194807 -0.07693627
  0.07146145 -0.24308531  0.14086941  0.00396111 -0.00041637 -0.15192235
 -0.1531549   0.00188194 -0.01415056 -0.08431347  0.02170759 -0.16120055
 -0.09861265 -0.05037079  0.16052136 -0.05887145  0.01528011 -0.1526303
  0.07042295 -0.08174329 -0.04727456 -0.1770126   0.00896045  0.04663855
 -0.16238049 -0.05932911 -0.07521407 -0.19602557  0.06430742 -0.12936735
 -0.12541404 -0.08328101  0.09453381 -0.11366597 -0.00061738 -0.1182854
  0.00312437  0.09259081 -0.24252312 -0.15389527 -0.17816874 -0.23302487
 -0.07563115  0.00460232 -0.18997553  0.05146417]
[-0.03052685 -0.05362995 -0.00260453  0.          0.         -0.20051725
 -0.09879272  0.          0.         -0.02992191 -0.04619858  0.
  0.12087123 -0.03343669  0.00419581  0.         -0.01657172 -0.02411407
 -0.27599058  0.         -0.12190457 -0.18882364  0.00505518  0.
  0.         -0.1905979   0.15735042  0.44429883 -0.0031246   0.
  0.34074488  0.2875346  -0.21132047  0.         -0.20503905  0.
 -0.20281987  0.         -0.01290713  0.          0.05267143 -0.16614158
  0.          0.         -0.00593066  0.         -0.1931786   0.
  0.          0.          0.02207419  0.         -0.06174303  0.
  0.00658595 -0.18626966  0.          0.          0.          0.
  0.30782866 -0.2769225   0.         -0.15702511]
layer 1 Dense
64 8
[-0.19291261  0.35856256 -0.06722055 -0.06145051  0.25344178  0.30226067
  0.0968357  -0.47215477]
[-0.25894266  0.39823976  0.06301966  0.03794685 -0.05056149  0.26802358
  0.05870374  0.4413454 ]
[-0.02666804  0.0926294   0.26624304 -0.15944919 -0.0485927   0.23762387
  0.15379322 -0.2195208 ]
[-0.1982364   0.06765127  0.14688942 -0.04968093  0.06128556 -0.13962288
 -0.07070115 -0.23536557]
[-0.06555906 -0.25129178  0.16697842 -0.16914043 -0.27004626  0.09403065
  0.2324363   0.12609324]
[ 0.03110374 -0.19821484 -0.1715355   0.16772193  0.0561032   0.22897626
 -0.02160462  0.13645448]
[-0.11130156  0.12589058 -0.08547511 -0.02076333 -0.12723704 -0.08948454
 -0.01769378  0.2427083 ]
[ 0.27881593 -0.20667517  0.10715362  0.03487796 -0.13214788  0.0277819
 -0.2648289   0.07684246]
[-0.14222173  0.11402276 -0.12822214 -0.2013074   0.02107459  0.04887259
 -0.00379533 -0.094001  ]
[-0.12755801 -0.4790452  -0.07186206  0.20197865 -0.0227288  -0.13879253
 -0.2616511  -0.35541955]
[0.17873834 0.9447418  0.0392335  0.6142433  0.43856198 0.5439632
 0.11737598 1.0134397 ]
[-0.27742037  0.16300097 -0.21372029 -0.23085144 -0.04226568 -0.23401102
 -0.04402025 -0.19396758]
[-0.30851957  0.24150176 -0.35571995 -0.18674599 -0.21795623  0.27862903
 -0.16616914  0.03462097]
[-0.00826946  0.08734837  0.18987128 -0.19721512  0.05547506 -0.06440817
 -0.15908137  0.02257706]
[ 0.0856837   0.73413074  0.03156202  0.44150996  0.23185256 -0.02875379
  0.24357197  0.79828584]
[-0.01095074  0.17087138  0.15719122  0.10236514  0.2322185  -0.0216291
 -0.04593374 -0.15496649]
[-0.09415151  1.3367543   0.0998642   2.0640774   1.7852124   0.9189784
  0.09654121  1.8981442 ]
[-0.27522373 -0.04242473 -0.2408736   0.11215734 -0.2267663  -0.14743988
  0.22022307 -0.24332413]
[-0.0675398   0.2247479  -0.08826959 -0.0453537   0.2774832  -0.02501004
 -0.32218188 -0.13169613]
[ 0.11188269 -0.12388627  0.00229099 -0.2290752   0.19278446  0.03236258
 -0.24841607  0.08685568]
[-0.28670484 -0.13233005 -0.28417724 -0.10173015 -0.08242939 -0.22239372
 -0.34077513  0.3569581 ]
[ 0.00998504  0.11176362 -0.03602577 -0.11093376 -0.4215254   0.06509554
  0.01637846 -0.8424648 ]
[-0.15489526  1.6556798  -0.29634595  0.97314036  1.787223   -0.6450154
 -0.18314509  1.606742  ]
[ 0.07051724  0.11530221  0.15789798 -0.28368074 -0.05681209  0.22324252
 -0.20061922 -0.11530448]
[ 0.12993148 -0.18588553  0.00551251  0.22166502 -0.03985451  0.16859451
  0.17951387 -0.23264469]
[-0.2537054  -0.27015668 -0.10892198  0.02271178  0.15827604 -0.21865293
  0.06208794 -0.11259494]
[-0.11476198  0.20362069  0.05629044 -0.3082028  -0.3990756  -0.01540009
 -0.06659978  0.06131548]
[-0.28419098  0.41184983 -0.06984964  0.10180854 -0.35291106  0.25645462
  0.07257123 -0.36061755]
[ 0.20490049 -0.39342287 -0.14070569  0.40808702 -0.02926375 -0.4302783
  0.1893127  -0.29671335]
[-0.0546445   0.16173568 -0.12386927  0.17266753  0.19590819 -0.02458763
  0.14481845  0.14643228]
[ 0.13895021 -0.23463403  0.17543519  0.0529369  -0.5479888  -0.15092032
 -0.04758698 -0.72914875]
[-0.1646754  -0.41868004 -0.24953294 -1.3127829  -1.604608   -0.00196972
 -0.01262965 -0.703035  ]
[ 0.07164091  0.1612701  -0.05232921  0.17025656  0.19804008  0.25826997
 -0.01815623  0.10802633]
[-0.22892557  0.13567257  0.06248695  0.00932214  0.2018424   0.1081723
 -0.08642027  0.23020327]
[ 0.04291555 -0.32517174 -0.1915612   0.38936624 -0.11551571 -0.507241
 -0.20404924  0.2451382 ]
[-0.0692205   0.2726372   0.11077639  0.20045286 -0.20048204 -0.25111985
  0.14634135  0.04344898]
[-0.2971291   0.10528957 -0.02367678  0.14738849  0.0630039  -0.19288501
  0.17291631  0.08763058]
[ 0.07930544  0.02958748 -0.2064517  -0.25056657 -0.06417367  0.07353014
  0.13042393  0.07664368]
[-0.2683266   0.3292618   0.16793242  0.05286614 -0.09410708  0.24066074
 -0.2176209   0.56525415]
[-0.06729242 -0.09289035  0.19240054 -0.2653697  -0.18624762  0.16128737
 -0.02920756 -0.04365939]
[ 0.02978101 -0.7284883  -0.14029157 -0.05901095  0.05744057 -0.87241644
 -0.1223717   0.09918144]
[ 0.0508459   0.05255606 -0.09879354  0.214289    0.21490534  0.24201936
 -0.27510583 -0.3275574 ]
[-0.08300412  0.26714712 -0.17743191 -0.172717    0.16299355 -0.28798172
  0.14292872 -0.07872517]
[ 0.27765268 -0.02629492 -0.02687332  0.07344866 -0.17735481 -0.26939586
  0.05113462  0.07321134]
[ 0.1108638  -0.06865372 -0.12206522  0.26442954  0.22306228 -0.05205259
 -0.16460289 -0.27508488]
[-0.07510653  0.13285568 -0.22500211 -0.12093318 -0.07954048 -0.0506752
  0.27355206  0.12080613]
[-0.27948582 -0.12019057 -0.03433497  0.0010373   0.11891051  0.29347613
  0.11549494  0.37224686]
[-0.00872019 -0.14347236  0.07224855  0.25129902 -0.06106606  0.05917382
 -0.04130805  0.0682078 ]
[-0.04104003  0.16666222 -0.21172683 -0.05480948 -0.26219437 -0.12325707
 -0.21200418 -0.21819815]
[-0.25344205  0.13112342 -0.19127917 -0.01896447 -0.1292358   0.24971771
  0.22133595 -0.10156396]
[-0.22454996 -0.1447229   0.04128382 -0.23318714 -0.04370766 -0.06746045
 -0.06652232 -0.10648399]
[ 0.02199635 -0.17235196  0.11697963 -0.23473327  0.22196603  0.27746552
  0.09192762 -0.27616885]
[-0.18657757 -0.01892446 -0.22620623 -0.19717959 -0.0493413  -0.03090512
 -0.16362388  0.19463119]
[ 0.14721179  0.05732661 -0.04253472  0.13843831 -0.0682776   0.16271982
 -0.16639262 -0.05959257]
[ 0.02683824  2.245526   -0.1255607   0.62553805  1.9643413   0.31252858
  0.25236636  1.6975385 ]
[ 0.05637829  0.11946261 -0.21707034  0.03681244 -0.03533471 -0.12647934
 -0.16977324  0.17104863]
[ 0.17206082  0.11440086 -0.10258195 -0.27490646 -0.15496525  0.28283662
  0.2616173  -0.11963595]
[-0.05871008  0.08881968  0.01048565  0.21229494  0.03750473  0.09263012
  0.00915068 -0.22770604]
[-0.24600826 -0.17160954  0.22574419 -0.10565178  0.2056562   0.2855199
 -0.2680769  -0.11888871]
[ 0.13643295  0.19384822  0.06911656 -0.00841454 -0.2129924  -0.0518166
  0.06894362  0.24269265]
[-0.2803018   0.04757093 -0.07717554 -0.20726122 -0.2472757   0.21859556
 -0.18677954 -0.5283281 ]
[ 0.28134018  0.75807536  0.18813464 -0.19677201  0.50953704  0.4168793
  0.26684973  0.1864502 ]
[ 0.12241286  0.02334458 -0.14927503  0.27683824 -0.21259926  0.11790273
 -0.1534321  -0.22903472]
[ 0.08901074 -0.10708784 -0.03292316 -0.76757383 -0.20445965 -0.79986364
  0.0246375  -0.30418634]
[-0.05086239  0.00950057 -0.11117703 -0.28059638 -0.22330642  0.10702391
 -0.04776288 -0.06001685]
layer 2 Dense
8 8
[ 0.4243775  -0.13671385 -0.1572594  -0.029396   -0.45199856  0.43575388
  0.02662402  0.14792906]
[-0.48083436  0.5670565  -0.7641305  -0.5901314   0.7108248  -0.11466087
  0.42630655 -0.46292675]
[-0.4582915  -0.18490903  0.513182   -0.14814046 -0.2604274  -0.13428906
 -0.03489039 -0.27847642]
[-0.48693106  0.31903905  0.30924606  0.08074483 -0.02637369 -0.50914496
 -1.0178531   0.08286675]
[-0.00529122  0.96609396  0.07046487 -0.1355048   0.29718813 -0.4496217
 -0.15175866 -0.10783803]
[-0.24924949  0.7780816   0.07604779 -0.13838746  0.9465404  -0.8454485
 -0.52246666  1.0321442 ]
[ 0.15101773  0.02886964 -0.10686284  0.4362002  -0.29431358  0.22486717
  0.15189907  0.35459858]
[-0.36543417  0.22369798 -0.5484595  -0.7224191   1.0287806   0.48742056
 -0.6201646   0.3488837 ]
[ 0.         -0.21135662  0.530329   -0.26521924 -0.09988407 -1.0157375
  0.97438717 -0.119782  ]
layer 3 Dense
8 1
[0.7959969]
[-0.6638636]
[0.9965944]
[-0.22958586]
[-0.35862625]
[1.0802774]
[1.3273959]
[-0.20198855]
[0.3476741]
